svm_type c_svc
kernel_type rbf
gamma 0.0107527
nr_class 2
total_sv 34
rho -0.138648
label 1 -1
nr_sv 13 21
SV
1 1:-0.544937 2:0.175476 3:-0.652451 4:-1.334015 5:0.019623 6:0.27034 7:-0.670563 8:0.07103 9:0.584763 10:-1.892639 11:0.27774 12:2.311935 13:-2.638321 14:0.495483 15:1.824875 16:-1.665405 17:0.024353 18:0.956741 19:-0.615997 20:-0.022583 21:0.323517 22:-0.220398 23:-0.258621 24:0.158524 25:-0.212952 26:-0.398285 27:0.037781 
1 1:-0.782883 2:-0.056961 3:-1.039413 4:-0.751755 5:0.01149 6:-1.023575 7:-0.772018 8:0.077805 9:-1.037018 10:-0.804947 11:0.16597 12:-1.003326 13:-0.927094 14:0.296387 15:-0.99176 16:-0.9729 17:0.420074 18:-1.000137 19:-0.918884 20:0.52684 21:-1.20575 22:-1.218018 23:0.403992 24:-0.99144 25:-1.195389 26:0.143631 27:-0.783615 28:-0.932098 29:0.288651 30:-1.01976 31:-0.390106 32:0.138657 33:-1.248459 34:-0.544937 35:0.175476 36:-0.652451 37:-1.334015 38:0.019623 39:0.27034 40:-0.670563 41:0.07103 42:0.584763 43:-1.892639 44:0.27774 45:2.311935 46:-2.638321 47:0.495483 48:1.824875 49:-1.665405 50:0.024353 51:0.956741 52:-0.615997 53:-0.022583 54:0.323517 55:-0.220398 56:-0.258621 57:0.158524 58:-0.212952 59:-0.398285 60:0.037781 61:-0.807144 62:-0.200241 63:-0.086212 64:-1.116638 65:0.047836 66:-0.224762 67:-0.958008 68:0.116058 69:-0.026215 70:-1.022308 71:0.037827 72:-0.057343 73:-1.047089 74:0.016373 75:-0.026138 76:-0.987473 77:0.049393 78:-0.014297 79:-0.981537 80:0.117905 81:-0.027557 82:-0.994583 83:0.095947 84:-0.092606 85:-1.006439 86:0.05072 87:-0.104401 88:-1.037827 89:0.001465 90:-0.05722 91:-1.066422 92:0.030563 93:-0.050552 
1 1:-0.827438 2:-0.175323 3:-0.38208 4:-0.918198 5:-0.209213 6:-0.173965 7:-0.908279 8:-0.1931 9:-0.078064 10:-0.996841 11:-0.134323 12:0.085907 13:-1.095627 14:-0.08696 15:0.069031 16:-1.219864 17:0.037811 18:0.268631 19:-1.283234 20:0.113297 21:0.367554 22:-1.491821 23:0.32991 24:0.239578 25:-1.589218 26:0.208038 27:0.382614 28:-1.6035 29:0.044693 30:0.460434 31:-1.420959 32:0.003326 33:0.707626 34:-1.157089 35:-0.060883 36:0.332626 37:-1.189423 38:0.176651 39:-0.334015 40:-1.053986 41:0.410629 42:-1.335358 43:-1.092346 44:0.704071 45:-2.375839 46:-1.596771 47:0.411957 48:-2.230072 49:-1.478973 50:0.454468 51:-0.969589 52:-0.817001 53:-0.15863 54:-0.541077 55:-0.295914 56:0.200912 57:-0.320602 58:-0.092468 59:0.007675 60:-0.299652 61:-0.245361 62:-0.015747 63:-0.298401 64:-0.615631 65:-0.253372 66:-0.14447 67:-0.851578 68:-0.028244 69:-0.048355 70:-1.179382 71:-0.238251 72:-0.179718 73:-1.17244 74:0.011948 75:-0.03833 76:-1.139374 77:0.13707 78:0.002365 79:-1.140411 80:0.107132 81:-0.044342 82:-1.097366 83:0.088089 84:-0.092773 85:-1.060379 86:0.050461 87:-0.113266 88:-0.970734 89:0.02507 90:-0.109344 91:-0.916565 92:0.035126 93:-0.068375 
1 1:-0.916702 2:0.138992 3:-0.00647 4:-0.884308 5:0.185074 6:-0.006729 7:-1.027817 8:0.23848 9:0.026016 10:-0.969177 11:0.176636 12:-0.080704 13:-0.85762 14:0.135147 15:-0.353729 16:-0.76593 17:-0.056839 18:-0.188705 19:-0.922348 20:-0.313171 21:-0.167053 22:-1.363892 23:-0.595673 24:-0.25975 25:-1.536331 26:-0.795349 27:-0.055695 28:-2.036072 29:-0.431473 30:-0.081924 31:-1.769485 32:-0.487137 33:-0.149689 34:-1.728394 35:-0.133865 36:-0.082428 37:-2.177933 38:-0.289001 39:-0.425339 40:-1.811768 41:-0.99942 42:0.992218 43:-1.543686 44:-1.897873 45:2.252151 46:-1.00322 47:-1.837112 48:3.553635 49:-0.58931 50:-0.929489 51:1.862656 52:-0.003616 53:0.585037 54:1.2164 55:0.428528 56:0.593048 57:0.690659 58:0.077225 59:0.386444 60:0.250748 61:-0.588104 62:0.367905 63:0.357162 64:-0.827438 65:0.535843 66:0.418411 67:-0.794403 68:0.489471 69:0.312042 70:-0.844406 71:0.361572 72:0.19606 73:-0.966492 74:0.182617 75:0.083008 76:-0.921402 77:0.095871 78:-0.045975 79:-0.952133 80:0.087433 81:-0.063202 82:-1.038269 83:0.05365 84:-0.022141 85:-1.003098 86:0.05127 87:-0.014877 88:-0.983429 89:0.100479 90:0.013489 91:-0.982178 92:0.118454 93:0.092331 
1 1:-0.983353 2:0.081802 3:-0.381775 4:-1.013641 5:0.078156 6:-0.188095 7:-0.991226 8:0.046494 9:-0.147629 10:-0.977829 11:0.065018 12:-0.089386 13:-0.916733 14:0.128021 15:0.027054 16:-0.839386 17:0.11644 18:0.12796 19:-0.929977 20:0.150391 21:0.133041 22:-1.185318 23:0.394547 24:0.147354 25:-1.445328 26:0.560989 27:0.121384 28:-1.727661 29:0.603165 30:0.162552 31:-1.967194 32:0.620514 33:-0.231689 34:-1.433868 35:0.453461 36:-0.534653 37:-1.029572 38:0.52417 39:-1.066559 40:-1.075531 41:0.875565 42:-1.744125 43:-1.219681 44:1.02475 45:-1.452942 46:-1.835632 47:0.585815 48:-1.815399 49:-1.220551 50:0.165482 51:-1.087784 52:-0.531097 53:0.202698 54:-0.985321 55:-0.086838 56:0.044373 57:-0.781189 58:0.049713 59:-0.049881 60:-0.410995 61:-0.324677 62:-0.099182 63:-0.278778 64:-0.53009 65:-0.140274 66:-0.097855 67:-0.726547 68:-0.11026 69:-0.041595 70:-0.841202 71:-0.095718 72:-0.028427 73:-0.923813 74:-0.067673 75:0.060608 76:-0.962875 77:-0.034119 78:0.019562 79:-0.950684 80:0.005371 81:0.051773 82:-0.94252 83:0.017914 84:0.034317 85:-0.998108 86:0.039627 87:-0.045029 88:-1.135651 89:0.167572 90:-0.195541 91:-1.081207 92:0.179779 93:-0.224152 
1 1:-1.018646 2:0.176392 3:-0.111649 4:-1.015411 5:0.090591 6:-0.175705 7:-1.071274 8:0.041565 9:-0.162216 10:-1.052872 11:-0.091537 12:-0.27243 13:-0.993286 14:0.084152 15:-0.402267 16:-0.957413 17:0.267654 18:-0.501114 19:-1.138596 20:0.399292 21:-0.632904 22:-1.319046 23:0.384033 24:-0.479553 25:-1.241516 26:0.187332 27:-0.426758 28:-0.98291 29:-0.076706 30:-0.762634 31:-0.888489 32:-0.040451 33:-0.965591 34:-1.077209 35:0.229141 36:-0.366135 37:-1.376816 38:0.301346 39:0.449417 40:-1.215714 41:-0.010452 42:1.150116 43:-1.576523 44:0.034485 45:1.883789 46:-2.335495 47:-0.619659 48:2.070953 49:-1.012985 50:-0.712234 51:1.042328 52:0.174103 53:-0.301376 54:0.298035 55:0.137253 56:-0.493774 57:0.073349 58:-0.164474 59:-0.244827 60:0.117279 61:-0.650665 62:-0.16626 63:0.296631 64:-0.749832 65:-0.147049 66:0.310165 67:-0.858841 68:-0.134186 69:0.142426 70:-0.933899 71:-0.171875 72:0.078445 73:-1.039124 74:-0.140778 75:0.175858 76:-1.061279 77:-0.113388 78:0.211777 79:-1.011627 80:-0.129456 81:0.166077 82:-1.014725 83:-0.135178 84:0.165817 85:-1.001633 86:-0.145691 87:0.166611 88:-0.99762 89:-0.137939 90:0.19606 91:-0.97789 92:-0.12471 93:0.189148 
1 1:0.6259 2:-0.380203 3:0.346146 4:0.637558 5:-0.10051 6:-0.430374 7:0.222107 8:0.084641 9:-1.060959 10:1.787659 11:-0.042389 12:-2.363495 13:2.602112 14:0.390228 15:-1.443787 16:1.387177 17:-0.163055 18:-0.621506 19:0.700928 20:-0.104279 21:-0.622147 22:0.460205 23:-0.216934 24:-0.14502 25:0.316711 26:-0.149948 27:0.060181 
1 1:0.734482 2:0.004501 3:0.278854 4:0.332718 5:0.043655 6:-0.176651 7:0.1362 8:0.104752 9:-0.479858 10:0.59343 11:0.080002 12:-1.593369 13:1.770218 14:0.305222 15:-1.573441 16:2.044449 17:0.134033 18:-1.053864 19:1.884827 20:-0.487457 21:-0.382919 22:1.411591 23:-0.519043 24:-0.077377 25:0.457108 26:-0.027939 27:-0.00473 
1 1:0.82132 2:0.004425 3:0.797729 4:1.00563 5:-0.078934 6:0.696335 7:0.965271 8:-0.070404 9:0.785858 10:0.922729 11:-0.027344 12:0.798294 13:1.032867 14:-0.113235 15:0.713989 16:1.088577 17:0.029999 18:0.718369 19:1.037277 20:0.123703 21:0.68605 22:1.085876 23:-0.049088 24:0.709503 25:1.11734 26:0.029922 27:0.657227 28:0.909729 29:0.051971 30:0.647018 31:0.859909 32:0.140762 33:0.499634 34:0.734482 35:0.004501 36:0.278854 37:0.332718 38:0.043655 39:-0.176651 40:0.1362 41:0.104752 42:-0.479858 43:0.59343 44:0.080002 45:-1.593369 46:1.770218 47:0.305222 48:-1.573441 49:2.044449 50:0.134033 51:-1.053864 52:1.884827 53:-0.487457 54:-0.382919 55:1.411591 56:-0.519043 57:-0.077377 58:0.457108 59:-0.027939 60:-0.00473 61:0.219086 62:0.075195 63:-0.086578 64:0.44191 65:0.001999 66:-0.057816 67:0.834167 68:-0.21138 69:-0.101181 70:1.23204 71:-0.218674 72:-0.13504 73:1.130478 74:-0.127304 75:-0.071335 76:1.018799 77:-0.000641 78:-0.079651 79:1.00798 80:-0.06105 81:-0.071289 82:1.020233 83:0.008759 84:-0.018829 85:1.061249 86:0.056595 87:-0.01268 88:1.104156 89:0.073425 90:0.008255 91:1.100632 92:0.032074 93:-0.005203 
1 1:0.847137 2:-0.044037 3:0.057404 4:0.858627 5:-0.072067 6:0.084198 7:0.896683 8:-0.106293 9:0.12941 10:0.911423 11:-0.058334 12:0.173553 13:0.94957 14:0.082016 15:0.242767 16:1.070709 17:0.219757 18:0.276962 19:1.28125 20:0.523071 21:0.27005 22:1.309967 23:0.721176 24:0.307877 25:1.541748 26:1.001938 27:0.364548 28:1.869156 29:1.258926 30:0.552383 31:2.202042 32:0.962906 33:0.619736 34:1.379105 35:0.494293 36:0.545456 37:0.360138 38:0.609406 39:0.187256 40:0.578995 41:0.978302 42:-1.152252 43:1.046326 44:0.546707 45:-3.804611 46:3.809052 47:0.256073 48:-3.996796 49:1.337708 50:0.835556 51:-1.477188 52:-0.132584 53:-0.121384 54:-0.125137 55:-0.231674 56:-0.151993 57:-0.815598 58:-0.263153 59:-0.202927 60:-0.372162 61:0.282455 62:-0.100403 63:-0.165192 64:0.806595 65:-0.105026 66:-0.362701 67:1.210831 68:-0.264877 69:-0.423935 70:1.119049 71:-0.117569 72:-0.24118 73:1.017349 74:-0.098846 75:-0.184616 76:0.996048 77:-0.147018 78:-0.322723 79:0.971802 80:-0.107224 81:-0.447586 82:0.759415 83:0.055695 84:-0.532623 85:0.586868 86:0.051376 87:-0.601013 88:0.636017 89:0.112747 90:-0.649567 91:0.615265 92:0.078903 93:-0.655563 
1 1:0.936813 2:-0.238983 3:0.087189 4:0.574005 5:-0.059982 6:-0.132492 7:1.192413 8:0.171967 9:-1.809326 10:1.321075 11:0.019455 12:-2.128113 13:1.628891 14:0.050003 15:-2.034515 16:1.581604 17:0.133972 18:-1.171921 19:1.126556 20:-0.064697 21:-0.50061 22:0.477432 23:-0.326355 24:-0.103195 25:0.003891 26:-0.293121 27:0.081772 
1 1:0.973312 2:-0.046631 3:0.631729 4:0.982147 5:-0.021835 6:0.656601 7:0.964005 8:0.04744 9:0.671906 10:1.016998 11:0.096817 12:0.777344 13:1.241104 14:0.072556 15:0.657303 16:1.232864 17:0.076126 18:0.649231 19:1.144501 20:0.063705 21:0.69223 22:1.225693 23:-0.233444 24:0.819351 25:1.053879 26:-0.141953 27:0.862457 28:0.805954 29:-0.004318 30:0.750198 31:0.496719 32:-0.384354 33:0.699036 34:0.6259 35:-0.380203 36:0.346146 37:0.637558 38:-0.10051 39:-0.430374 40:0.222107 41:0.084641 42:-1.060959 43:1.787659 44:-0.042389 45:-2.363495 46:2.602112 47:0.390228 48:-1.443787 49:1.387177 50:-0.163055 51:-0.621506 52:0.700928 53:-0.104279 54:-0.622147 55:0.460205 56:-0.216934 57:-0.14502 58:0.316711 59:-0.149948 60:0.060181 61:0.725647 62:-0.209244 63:-0.008179 64:1.032364 65:-0.073792 66:0.101791 67:1.053452 68:0.01915 69:-0.045395 70:1.063736 71:-0.07869 72:0.006378 73:1.056656 74:-0.018509 75:0.055038 76:1.067017 77:0.085159 78:0.03064 79:1.032074 80:0.024231 81:-0.061798 82:0.990158 83:0.050797 84:-0.058121 85:1.087616 86:0.104843 87:0.009155 88:0.964828 89:0.074738 90:0.001099 91:1.020874 92:0.071548 93:-0.049164 
1 1:1.076309 2:-0.24054 3:0.651596 4:1.110397 5:-0.207382 6:0.475006 7:1.166489 8:-0.082214 9:0.500031 10:1.277252 11:0.204453 12:0.435089 13:1.459244 14:0.388367 15:0.453644 16:1.549911 17:0.396545 18:0.394592 19:1.588486 20:0.376358 21:0.387756 22:1.4664 23:0.403702 24:0.624939 25:1.423935 26:0.435562 27:0.568283 28:1.204834 29:0.314011 30:0.638351 31:0.854507 32:0.040619 33:0.701889 34:0.936813 35:-0.238983 36:0.087189 37:0.574005 38:-0.059982 39:-0.132492 40:1.192413 41:0.171967 42:-1.809326 43:1.321075 44:0.019455 45:-2.128113 46:1.628891 47:0.050003 48:-2.034515 49:1.581604 50:0.133972 51:-1.171921 52:1.126556 53:-0.064697 54:-0.50061 55:0.477432 56:-0.326355 57:-0.103195 58:0.003891 59:-0.293121 60:0.081772 61:0.331848 62:-0.286285 63:0.07547 64:0.880142 65:-0.178436 66:-0.031799 67:1.352112 68:-0.073059 69:0.037064 70:1.190674 71:-0.074051 72:-0.084793 73:0.914413 74:-0.019562 75:0.040817 76:1.010056 77:0.030426 78:0.056274 79:1.096252 80:0.082016 81:0.046143 82:1.061478 83:0.075821 84:0.07196 85:1.164948 86:-0.007599 87:-0.097763 88:0.955002 89:-0.018845 90:0.013092 91:0.993393 92:0.054657 93:0.071274 
-0.2294335612988605 1:-0.404037 2:-0.218658 3:-0.915695 4:-0.547531 5:-0.356628 6:-0.865601 7:-0.605392 8:-0.264801 9:-0.704346 10:-0.411224 11:-0.287506 12:-0.870056 13:-0.540131 14:-0.329529 15:-0.706223 16:-0.712891 17:-0.280319 18:-0.766815 19:-0.801056 20:-0.273193 21:-0.34993 22:-0.856796 23:-0.240372 24:-0.270416 25:-1.131836 26:-0.238846 27:-0.189636 28:-1.074692 29:-0.056442 30:-0.018112 31:-0.942978 32:-0.158203 33:-0.063141 34:-1.048111 35:-0.005447 36:-0.258438 37:-0.992294 38:0.016556 39:-0.138901 40:-1.205826 41:0.000214 42:-0.27034 43:-1.244461 44:0.054092 45:0.021606 46:-1.188019 47:0.020096 48:0.0112 49:-0.965698 50:-0.142822 51:-0.664307 52:-1.091492 53:-0.04718 54:0.00296 55:-0.994965 56:0.029816 57:0.003387 58:-0.980301 59:-0.040665 60:0.018707 61:-1.017685 62:0.112183 63:-0.123138 64:-1.053772 65:0.108597 66:-0.114624 67:-1.018646 68:0.176392 69:-0.111649 70:-1.015411 71:0.090591 72:-0.175705 73:-1.071274 74:0.041565 75:-0.162216 76:-1.052872 77:-0.091537 78:-0.27243 79:-0.993286 80:0.084152 81:-0.402267 82:-0.957413 83:0.267654 84:-0.501114 85:-1.138596 86:0.399292 87:-0.632904 88:-1.319046 89:0.384033 90:-0.479553 
-0.6898414807970141 1:-0.427032 2:-0.291199 3:-1.314087 4:-0.324249 5:-0.345718 6:-0.697403 7:-0.422592 8:-0.335236 9:-0.569778 10:-0.482193 11:-0.499512 12:-0.428268 13:-0.577759 14:-0.354675 15:-0.607224 16:-0.616989 17:-0.260651 18:-0.599838 19:-0.659515 20:-0.074631 21:-0.774048 22:-0.774765 23:0.051422 24:-0.66539 25:-0.935135 26:0.336594 27:-0.540054 28:-0.926743 29:0.405167 30:-0.57933 31:-0.915878 32:0.248383 33:-0.278793 34:-0.93335 35:0.3405 36:-0.186615 37:-0.918579 38:0.205963 39:-0.088654 40:-1.016174 41:0.217361 42:-0.0289 43:-1.006104 44:0.219376 45:-0.001602 46:-1.220795 47:0.407516 48:-0.035995 49:-1.277191 50:0.498138 51:0.134491 52:-1.17868 53:0.334 54:0.291824 55:-1.106506 56:0.21405 57:0.317657 58:-1.389709 59:0.228439 60:0.360718 61:-0.918213 62:0.150818 63:0.253769 64:-0.766495 65:0.070892 66:0.018661 67:-0.915909 68:0.121063 69:0.10318 70:-0.95256 71:0.210251 72:0.125931 73:-0.824661 74:0.125427 75:0.063126 76:-0.916702 77:0.138992 78:-0.00647 79:-0.884308 80:0.185074 81:-0.006729 82:-1.027817 83:0.23848 84:0.026016 85:-0.969177 86:0.176636 87:-0.080704 88:-0.85762 89:0.135147 90:-0.353729 
-0.4683307595066401 1:-0.588104 2:0.367905 3:0.357162 4:-0.827438 5:0.535843 6:0.418411 7:-0.794403 8:0.489471 9:0.312042 10:-0.844406 11:0.361572 12:0.19606 13:-0.966492 14:0.182617 15:0.083008 16:-0.921402 17:0.095871 18:-0.045975 19:-0.952133 20:0.087433 21:-0.063202 22:-1.038269 23:0.05365 24:-0.022141 25:-1.003098 26:0.05127 27:-0.014877 28:-0.983429 29:0.100479 30:0.013489 31:-0.982178 32:0.118454 33:0.092331 34:-1.193146 35:0.020538 36:0.408875 37:-1.109589 38:-0.079193 39:0.482727 40:-1.276764 41:-0.055481 42:0.606781 43:-1.364487 44:-0.009445 45:0.462051 46:-1.130356 47:-0.056488 48:0.229401 49:-1.011688 50:-0.186798 51:0.004257 52:-0.725952 53:0.052994 54:-0.283203 55:-0.986542 56:0.151047 57:-0.449829 58:-0.989868 59:0.024567 60:-0.503494 61:-0.876663 62:0.122314 63:-0.583221 64:-0.996063 65:0.086105 66:-0.638718 67:-1.044174 68:0.021805 69:-0.590683 70:-1.01503 71:-0.052704 72:-0.621201 73:-0.978683 74:-0.097153 75:-0.594772 76:-0.950928 77:-0.155548 78:-0.5504 79:-0.877319 80:-0.203156 81:-0.632706 82:-0.739548 83:-0.135254 84:-0.57782 85:-0.681946 86:-0.155228 87:-0.583801 88:-0.649384 89:-0.193359 90:-0.632309 
-1 1:-0.673615 2:-0.161057 3:-0.866653 4:-0.607788 5:-0.127258 6:-0.868179 7:-0.623978 8:-0.089508 9:-0.855591 10:-0.685516 11:-0.063034 12:-0.777847 13:-0.807541 14:-0.059692 15:-0.826477 16:-0.730743 17:-0.032288 18:-0.779037 19:-0.769928 20:-0.066635 21:-0.682999 22:-0.801376 23:0.008179 24:-0.814697 25:-0.790604 26:-0.013016 27:-0.72612 28:-0.830109 29:0.042389 30:-0.806808 31:-0.507126 32:-0.015411 33:-1.065948 34:-1.461212 35:0.171921 36:-0.830902 37:-0.95192 38:-0.095032 39:-0.664429 40:-0.809601 41:-0.096954 42:-0.662598 43:-0.865189 44:-0.089798 45:-0.649307 46:-0.893448 47:-0.053818 48:-0.675446 49:-0.839233 50:-0.1315 51:-0.449509 52:-0.827438 53:-0.175323 54:-0.38208 55:-0.918198 56:-0.209213 57:-0.173965 58:-0.908279 59:-0.1931 60:-0.078064 61:-0.996841 62:-0.134323 63:0.085907 64:-1.095627 65:-0.08696 66:0.069031 67:-1.219864 68:0.037811 69:0.268631 70:-1.283234 71:0.113297 72:0.367554 73:-1.491821 74:0.32991 75:0.239578 76:-1.589218 77:0.208038 78:0.382614 79:-1.6035 80:0.044693 81:0.460434 82:-1.420959 83:0.003326 84:0.707626 85:-1.157089 86:-0.060883 87:0.332626 88:-1.189423 89:0.176651 90:-0.334015 
-0.9907630548829385 1:-0.918884 2:0.52684 3:-1.20575 4:-1.218018 5:0.403992 6:-0.99144 7:-1.195389 8:0.143631 9:-0.783615 10:-0.932098 11:0.288651 12:-1.01976 13:-0.390106 14:0.138657 15:-1.248459 16:-0.544937 17:0.175476 18:-0.652451 19:-1.334015 20:0.019623 21:0.27034 22:-0.670563 23:0.07103 24:0.584763 25:-1.892639 26:0.27774 27:2.311935 
-0.9910686634865296 1:-0.933899 2:-0.171875 3:0.078445 4:-1.039124 5:-0.140778 6:0.175858 7:-1.061279 8:-0.113388 9:0.211777 10:-1.011627 11:-0.129456 12:0.166077 13:-1.014725 14:-0.135178 15:0.165817 16:-1.001633 17:-0.145691 18:0.166611 19:-0.99762 20:-0.137939 21:0.19606 22:-0.97789 23:-0.12471 24:0.189148 25:-0.970703 26:-0.11441 27:0.205734 28:-0.963852 29:-0.121582 30:0.214294 31:-0.950455 32:-0.100677 33:0.208313 34:-0.970718 35:-0.101562 36:0.212067 37:-1.006699 38:-0.100555 39:0.272675 40:-1.045074 41:-0.162277 42:0.419556 43:-1.006989 44:-0.176102 45:0.487625 46:-0.99295 47:-0.093491 48:0.481461 49:-1.062637 50:-0.027298 51:0.628525 52:-0.940369 53:-0.065063 54:0.220093 55:-0.962952 56:-0.252213 57:0.234344 58:-0.859894 59:-0.315887 60:0.039825 61:-0.860886 62:-0.136673 63:-0.214157 64:-0.851562 65:-0.017944 66:-0.29303 67:-0.949738 68:-0.048981 69:-0.418442 70:-0.941132 71:-0.111176 72:-0.471237 73:-0.957932 74:-0.066956 75:-0.480545 76:-1.009628 77:-0.178833 78:-0.486084 79:-0.976425 80:-0.25531 81:-0.557709 82:-0.907791 83:-0.284378 84:-0.523773 85:-0.925507 86:-0.196487 87:-0.571457 88:-0.802261 89:-0.285431 90:-0.607544 
-0.7129973219035854 1:-0.969635 2:0.005722 3:-0.042206 4:-1.013931 5:0.005478 6:-0.041031 7:-1.031219 8:0.01384 9:-0.004868 10:-1.040207 11:-0.004593 12:-0.015152 13:-1.072525 14:0.001602 15:-0.013885 16:-1.050873 17:0.008896 18:-0.037598 19:-1.115891 20:-0.019531 21:0.027893 22:-1.134171 23:-0.0103 24:0.037033 25:-1.188507 26:0.049774 27:0.099518 28:-1.099655 29:0.088165 30:-0.035614 31:-0.884949 32:0.115036 33:-0.306229 34:-0.931625 35:0.164658 36:-0.26268 37:-1.100983 38:0.311539 39:-0.43306 40:-0.891464 41:0.137207 42:-0.70224 43:-0.855789 44:0.098572 45:-0.625214 46:-0.822433 47:0.080215 48:-0.910095 49:-0.643204 50:-0.168365 51:-0.911469 52:-0.206421 53:-0.302017 54:-0.70929 55:-0.160538 56:-0.214371 57:-1.02562 58:-0.434113 59:-0.092316 60:-0.877563 61:-0.563278 62:-0.230728 63:-1.008133 64:-0.270325 65:-0.300003 66:-0.699951 67:-0.23613 68:-0.383667 69:-0.635864 70:-0.315048 71:-0.393753 72:-0.660446 73:-0.051422 74:-0.494125 75:-1.005325 76:-0.218567 77:-0.336578 78:-0.663422 79:0.089233 80:-0.505005 81:-0.63063 82:0.116699 83:-0.413483 84:-0.672455 85:0.520233 86:-0.285995 87:-0.734344 88:0.038467 89:-0.432907 90:-0.454269 
-0.7541257240143701 1:-0.994583 2:0.095947 3:-0.092606 4:-1.006439 5:0.05072 6:-0.104401 7:-1.037827 8:0.001465 9:-0.05722 10:-1.066422 11:0.030563 12:-0.050552 13:-1.062286 14:0.034409 15:-0.086029 16:-1.067093 17:0.028931 18:-0.099686 19:-1.080475 20:0.02948 21:-0.105377 22:-1.117081 23:0.028229 24:-0.066925 25:-1.080444 26:0.026245 27:-0.073517 28:-1.032364 29:0.011902 30:-0.066177 31:-0.999008 32:0.013992 33:-0.050903 34:-0.98381 35:0.019226 36:-0.027451 37:-0.985229 38:0.005081 39:-0.006561 40:-0.974152 41:-0.003021 42:-0.022064 43:-0.970428 44:0.007034 45:-0.025452 46:-0.969635 47:0.005722 48:-0.042206 49:-1.013931 50:0.005478 51:-0.041031 52:-1.031219 53:0.01384 54:-0.004868 55:-1.040207 56:-0.004593 57:-0.015152 58:-1.072525 59:0.001602 60:-0.013885 61:-1.050873 62:0.008896 63:-0.037598 64:-1.115891 65:-0.019531 66:0.027893 67:-1.134171 68:-0.0103 69:0.037033 70:-1.188507 71:0.049774 72:0.099518 73:-1.099655 74:0.088165 75:-0.035614 76:-0.884949 77:0.115036 78:-0.306229 79:-0.931625 80:0.164658 81:-0.26268 82:-1.100983 83:0.311539 84:-0.43306 85:-0.891464 86:0.137207 87:-0.70224 88:-0.855789 89:0.098572 90:-0.625214 
-0.3139158494601811 1:0.019333 2:-0.724136 3:-0.368332 4:-0.519775 5:-0.549667 6:-0.33905 7:-0.783905 8:-0.57283 9:-0.463486 10:-1.038223 11:-0.373123 12:-0.261475 13:-0.511032 14:-0.061951 15:-0.335312 16:-0.718918 17:-0.425446 18:-0.671646 19:-1.486298 20:-0.108521 21:-0.476929 22:-0.644882 23:-0.119843 24:-0.560928 25:-0.828247 26:0.030334 27:-0.6745 28:-1.200439 29:0.013016 30:-0.52594 31:-1.189148 32:0.006195 33:-0.522232 34:-1.056168 35:-0.094589 36:-0.603012 37:-1.009872 38:0.008209 39:-0.438934 40:-0.933456 41:0.15596 42:-0.434662 43:-0.976242 44:0.156281 45:-0.462906 46:-0.992584 47:0.086746 48:-0.41539 49:-0.983353 50:0.081802 51:-0.381775 52:-1.013641 53:0.078156 54:-0.188095 55:-0.991226 56:0.046494 57:-0.147629 58:-0.977829 59:0.065018 60:-0.089386 61:-0.916733 62:0.128021 63:0.027054 64:-0.839386 65:0.11644 66:0.12796 67:-0.929977 68:0.150391 69:0.133041 70:-1.185318 71:0.394547 72:0.147354 73:-1.445328 74:0.560989 75:0.121384 76:-1.727661 77:0.603165 78:0.162552 79:-1.967194 80:0.620514 81:-0.231689 82:-1.433868 83:0.453461 84:-0.534653 85:-1.029572 86:0.52417 87:-1.066559 88:-1.075531 89:0.875565 90:-1.744125 
-0.1777811807996305 1:0.219315 2:-0.733887 3:-0.691635 4:0.117432 5:-0.701248 6:-0.723099 7:0.094391 8:-0.70256 9:-0.66803 10:0.122665 11:-0.681488 12:-0.711868 13:0.208878 14:-0.641571 15:-0.459061 16:0.374313 17:-0.585129 18:-0.860565 19:0.70108 20:-0.508362 21:-0.708679 22:1.314438 23:-0.557892 24:-0.763931 25:0.97139 26:-0.426895 27:-0.383484 28:0.924057 29:-0.308075 30:-0.460968 31:1.089294 32:-0.049683 33:0.043045 34:0.923904 35:-0.108856 36:0.208115 37:0.966171 38:-0.157593 39:0.344299 40:0.83606 41:-0.041336 42:0.441177 43:0.765045 44:-0.103012 45:0.559143 46:0.738724 47:-0.039368 48:0.725677 49:0.722458 50:0.046097 51:0.750717 52:0.82132 53:0.004425 54:0.797729 55:1.00563 56:-0.078934 57:0.696335 58:0.965271 59:-0.070404 60:0.785858 61:0.922729 62:-0.027344 63:0.798294 64:1.032867 65:-0.113235 66:0.713989 67:1.088577 68:0.029999 69:0.718369 70:1.037277 71:0.123703 72:0.68605 73:1.085876 74:-0.049088 75:0.709503 76:1.11734 77:0.029922 78:0.657227 79:0.909729 80:0.051971 81:0.647018 82:0.859909 83:0.140762 84:0.499634 85:0.734482 86:0.004501 87:0.278854 88:0.332718 89:0.043655 90:-0.176651 
-0.3273271283381013 1:0.330307 2:-0.631042 3:-0.619339 4:0.374344 5:-0.616119 6:-0.698837 7:0.472641 8:-0.679565 9:-0.594208 10:0.55188 11:-0.670166 12:-0.607101 13:0.468277 14:-0.628265 15:-0.571579 16:0.438354 17:-0.64682 18:-0.682449 19:0.413422 20:-0.64061 21:-0.634415 22:0.313416 23:-0.620804 24:-0.540863 25:0.185837 26:-0.607529 27:-0.680756 28:0.50148 29:-0.594849 30:-1.353348 31:0.515228 32:-0.60054 33:-0.636444 34:0.881775 35:-0.78746 36:-0.760193 37:0.41713 38:-0.468094 39:-0.731018 40:0.312225 41:-0.249268 42:-0.652878 43:1.568161 44:-0.914673 45:-0.138626 46:0.743164 47:-0.583252 48:-0.802399 49:0.710373 50:-0.436142 51:-0.466537 52:0.80394 53:-0.39975 54:-0.085007 55:0.999054 56:-0.361847 57:-0.06192 58:1.04303 59:-0.260193 60:-0.004883 61:0.914429 62:-0.373398 63:0.204132 64:0.941986 65:-0.213577 66:0.286942 67:0.932632 68:-0.124649 69:0.244644 70:0.881912 71:-0.240585 72:0.323502 73:0.894913 74:-0.176971 75:0.503159 76:0.930145 77:-0.12204 78:0.439713 79:0.834946 80:-0.207458 81:0.518829 82:0.816589 83:-0.043472 84:0.661438 85:0.966293 86:0.125565 87:0.619217 88:0.973312 89:-0.046631 90:0.631729 
-0.6194578289385307 1:0.769531 2:-0.523529 3:-0.541916 4:0.783859 5:-0.531067 6:-0.350159 7:0.308746 8:-0.380295 9:-0.469864 10:-0.192184 11:-0.077393 12:0.103439 13:0.768982 14:-0.352448 15:-0.549515 16:1.400894 17:-0.224533 18:-0.371201 19:1.176636 20:-0.311951 21:0.160797 22:1.004745 23:0.115402 24:0.246536 25:0.72052 26:-0.121948 27:0.216858 28:0.875534 29:-0.313095 30:0.136353 31:0.960999 32:-0.120407 33:0.231445 34:1.10997 35:0.168686 36:0.245041 37:1.135483 38:0.243042 39:0.3078 40:1.161209 41:0.590729 42:0.273773 43:1.189377 44:0.753204 45:0.189941 46:1.5047 47:0.8517 48:0.148163 49:1.794739 50:0.564819 51:0.040405 52:1.949905 53:0.38797 54:0.245453 55:1.83046 56:0.257309 57:0.346024 58:1.411407 59:0.338379 60:-0.091553 61:0.832535 62:0.25769 63:-1.15683 64:1.540939 65:-0.077484 66:-2.57103 67:2.53598 68:-0.288345 69:-2.392807 70:2.34343 71:-0.069336 72:-1.54483 73:1.110413 74:0.123795 75:-1.159454 76:-0.14946 77:0.199188 78:-0.747818 79:-0.323898 80:-0.18277 81:-0.678009 82:-0.065994 83:-0.185333 84:-0.218704 85:0.494995 86:-0.101227 87:-0.146637 88:0.854584 89:-0.373535 90:-0.08226 
-0.9305272884286794 1:0.868317 2:-0.056992 3:-0.783096 4:0.954483 5:-0.109222 6:-0.900604 7:0.962646 8:-0.016388 9:-0.98317 10:1.170792 11:-0.022766 12:-0.871735 13:1.127182 14:-0.028625 15:-0.93425 16:1.081558 17:0.051407 18:-0.896744 19:1.128784 20:0.107224 21:-0.852158 22:0.985916 23:0.178818 24:-0.861191 25:0.918671 26:0.23172 27:-0.857422 28:0.857529 29:0.241119 30:-0.80159 31:0.871643 32:0.319107 33:-0.815521 34:0.812057 35:0.296371 36:-0.851181 37:0.749344 38:0.265778 39:-0.817764 40:0.854279 41:0.320633 42:-0.79274 43:0.88176 44:0.25441 45:-0.824768 46:0.792557 47:0.280899 48:-0.799011 49:0.773254 50:0.244904 51:-0.736893 52:0.910904 53:0.217606 54:-0.704712 55:0.803696 56:0.287109 57:-0.694107 58:0.813507 59:0.233246 60:-0.664902 61:0.796906 62:0.281067 63:-0.456497 64:0.74855 65:0.343094 66:-0.24411 67:0.755615 68:0.370895 69:-0.263519 70:0.886337 71:0.199875 72:-0.26413 73:0.930542 74:-0.08432 75:-0.284836 76:0.962967 77:0.155579 78:-0.174927 79:0.895737 80:0.158325 81:-0.073654 82:0.852341 83:0.117172 84:-0.069351 85:0.868317 86:-0.035461 87:-0.01445 88:0.847137 89:-0.044037 90:0.057404 
-0.4112757133067118 1:0.914108 2:-0.30481 3:0.004288 4:1.0271 5:-0.212204 6:0.018402 7:1.049072 8:-0.135757 9:0.090149 10:1.074997 11:-0.109039 12:0.054092 13:1.035004 14:-0.132446 15:-0.011597 16:1.001724 17:-0.123367 18:-0.080383 19:0.989716 20:-0.097778 21:-0.277954 22:0.78508 23:-0.058411 24:-0.405624 25:0.507767 26:-0.020355 27:-0.340347 28:0.695831 29:0.114746 30:-0.377014 31:0.58252 32:0.040833 33:-0.489426 34:0.62442 35:0.077789 36:-0.634583 37:0.742447 38:0.058792 39:-0.706619 40:0.976532 41:-0.105377 42:-0.770828 43:0.931381 44:-0.129715 45:-0.856018 46:0.868317 47:-0.056992 48:-0.783096 49:0.954483 50:-0.109222 51:-0.900604 52:0.962646 53:-0.016388 54:-0.98317 55:1.170792 56:-0.022766 57:-0.871735 58:1.127182 59:-0.028625 60:-0.93425 61:1.081558 62:0.051407 63:-0.896744 64:1.128784 65:0.107224 66:-0.852158 67:0.985916 68:0.178818 69:-0.861191 70:0.918671 71:0.23172 72:-0.857422 73:0.857529 74:0.241119 75:-0.80159 76:0.871643 77:0.319107 78:-0.815521 79:0.812057 80:0.296371 81:-0.851181 82:0.749344 83:0.265778 84:-0.817764 85:0.854279 86:0.320633 87:-0.79274 88:0.88176 89:0.25441 90:-0.824768 
-0.7648650644517798 1:0.966293 2:0.125565 3:0.619217 4:0.973312 5:-0.046631 6:0.631729 7:0.982147 8:-0.021835 9:0.656601 10:0.964005 11:0.04744 12:0.671906 13:1.016998 14:0.096817 15:0.777344 16:1.241104 17:0.072556 18:0.657303 19:1.232864 20:0.076126 21:0.649231 22:1.144501 23:0.063705 24:0.69223 25:1.225693 26:-0.233444 27:0.819351 
-1 1:0.985672 2:0.014771 3:0.030823 4:0.999237 5:0.072937 6:0.026581 7:1.053146 8:0.032013 9:-0.033951 10:1.130646 11:-0.01059 12:-0.107452 13:1.044373 14:-0.018112 15:-0.044739 16:1.017426 17:0.013245 18:-0.013245 19:0.98056 20:0.014389 21:-0.033417 22:0.947021 23:0.008301 24:-0.028503 25:0.978699 26:-0.003403 27:-0.013992 28:1.017059 29:-0.013504 30:-0.040039 31:0.997818 32:0.00679 33:-0.057388 34:1.030579 35:-0.031052 36:-0.048737 37:1.033676 38:-0.002884 39:-0.055496 40:1.020859 41:0.006378 42:-0.066498 43:1.036728 44:0.004211 45:-0.075424 46:1.038177 47:0.0177 48:-0.082932 49:0.977295 50:0.00592 51:-0.054611 52:1.011017 53:-0.007172 54:-0.069 55:0.989258 56:0.002884 57:-0.064285 58:0.962311 59:-0.02243 60:-0.039642 61:0.994064 62:-0.024811 63:-0.058899 64:0.997437 65:0.002167 66:-0.063263 67:1.017578 68:-0.013397 69:-0.069717 70:1.001175 71:-0.000534 72:-0.04985 73:1.005478 74:-0.003418 75:-0.074142 76:1.01152 77:-0.007889 78:-0.0634 79:0.998108 80:-0.006027 81:-0.05278 82:1.011917 83:-0.003067 84:-0.067047 85:0.982819 86:0.00235 87:-0.060165 88:0.975464 89:-0.022415 90:-0.065323 
-1 1:1.076309 2:-0.24054 3:0.651596 4:1.110397 5:-0.207382 6:0.475006 7:1.166489 8:-0.082214 9:0.500031 10:1.277252 11:0.204453 12:0.435089 13:1.459244 14:0.388367 15:0.453644 16:1.549911 17:0.396545 18:0.394592 19:1.588486 20:0.376358 21:0.387756 22:1.4664 23:0.403702 24:0.624939 25:1.423935 26:0.435562 27:0.568283 
-0.1508391992531621 1:1.108353 2:-0.078217 3:-0.330704 4:1.057816 5:-0.186523 6:-0.338684 7:1.038223 8:-0.195007 9:-0.349274 10:1.072021 11:-0.195374 12:-0.500107 13:0.849564 14:-0.173126 15:-0.500671 16:0.963593 17:-0.207764 18:-0.409546 19:1.076111 20:-0.329681 21:-0.362076 22:0.855011 23:-0.217529 24:-0.491226 25:0.630463 26:-0.133179 27:-0.529694 28:0.627899 29:-0.22403 30:-0.399918 31:0.615311 32:-0.364227 33:-0.54924 34:0.440582 35:-0.560852 36:-0.600616 37:0.449783 38:-0.570618 39:-0.672073 40:0.457367 41:-0.706467 42:-0.804993 43:0.516769 44:-0.71347 45:-0.657471 46:0.302017 47:-0.756348 48:-0.720352 49:0.243607 50:-0.802109 51:-0.704926 52:0.328476 53:-0.844864 54:-0.491394 55:0.125854 56:-0.860229 57:-0.661911 58:-0.095078 59:-0.720551 60:-0.810745 61:-0.077576 62:-0.755371 63:-0.471832 64:0.142303 65:-0.784882 66:-0.490509 67:0.070511 68:-0.79567 69:-0.468307 70:0.353439 71:-0.837997 72:-0.592667 73:0.248077 74:-0.811783 75:-0.728027 76:0.085709 77:-0.74881 78:-0.616547 79:0.104782 80:-0.791428 81:-0.670242 82:0.185867 83:-0.853775 84:-0.475479 85:0.20845 86:-0.807678 87:-0.534393 88:0.168564 89:-0.778793 90:-0.650635 
-0.5977652375709634 1:1.126556 2:-0.064697 3:-0.50061 4:0.477432 5:-0.326355 6:-0.103195 7:0.003891 8:-0.293121 9:0.081772 10:0.331848 11:-0.286285 12:0.07547 13:0.880142 14:-0.178436 15:-0.031799 16:1.352112 17:-0.073059 18:0.037064 19:1.190674 20:-0.074051 21:-0.084793 22:0.914413 23:-0.019562 24:0.040817 25:1.010056 26:0.030426 27:0.056274 28:1.096252 29:0.082016 30:0.046143 31:1.061478 32:0.075821 33:0.07196 34:1.164948 35:-0.007599 36:-0.097763 37:0.955002 38:-0.018845 39:0.013092 40:0.993393 41:0.054657 42:0.071274 43:1.065536 44:-0.02272 45:-0.075012 46:0.985672 47:0.014771 48:0.030823 49:0.999237 50:0.072937 51:0.026581 52:1.053146 53:0.032013 54:-0.033951 55:1.130646 56:-0.01059 57:-0.107452 58:1.044373 59:-0.018112 60:-0.044739 61:1.017426 62:0.013245 63:-0.013245 64:0.98056 65:0.014389 66:-0.033417 67:0.947021 68:0.008301 69:-0.028503 70:0.978699 71:-0.003403 72:-0.013992 73:1.017059 74:-0.013504 75:-0.040039 76:0.997818 77:0.00679 78:-0.057388 79:1.030579 80:-0.031052 81:-0.048737 82:1.033676 83:-0.002884 84:-0.055496 85:1.020859 86:0.006378 87:-0.066498 88:1.036728 89:0.004211 90:-0.075424 
-0.5259253649256421 1:1.459244 2:0.388367 3:0.453644 4:1.549911 5:0.396545 6:0.394592 7:1.588486 8:0.376358 9:0.387756 10:1.4664 11:0.403702 12:0.624939 13:1.423935 14:0.435562 15:0.568283 16:1.204834 17:0.314011 18:0.638351 19:0.854507 20:0.040619 21:0.701889 22:0.936813 23:-0.238983 24:0.087189 25:0.574005 26:-0.059982 27:-0.132492 
-0.3437595786366793 1:1.5047 2:0.8517 3:0.148163 4:1.794739 5:0.564819 6:0.040405 7:1.949905 8:0.38797 9:0.245453 10:1.83046 11:0.257309 12:0.346024 13:1.411407 14:0.338379 15:-0.091553 16:0.832535 17:0.25769 18:-1.15683 19:1.540939 20:-0.077484 21:-2.57103 22:2.53598 23:-0.288345 24:-2.392807 25:2.34343 26:-0.069336 27:-1.54483 28:1.110413 29:0.123795 30:-1.159454 31:-0.14946 32:0.199188 33:-0.747818 34:-0.323898 35:-0.18277 36:-0.678009 37:-0.065994 38:-0.185333 39:-0.218704 40:0.494995 41:-0.101227 42:-0.146637 43:0.854584 44:-0.373535 45:-0.08226 46:0.914108 47:-0.30481 48:0.004288 49:1.0271 50:-0.212204 51:0.018402 52:1.049072 53:-0.135757 54:0.090149 55:1.074997 56:-0.109039 57:0.054092 58:1.035004 59:-0.132446 60:-0.011597 61:1.001724 62:-0.123367 63:-0.080383 64:0.989716 65:-0.097778 66:-0.277954 67:0.78508 68:-0.058411 69:-0.405624 70:0.507767 71:-0.020355 72:-0.340347 73:0.695831 74:0.114746 75:-0.377014 76:0.58252 77:0.040833 78:-0.489426 79:0.62442 80:0.077789 81:-0.634583 82:0.742447 83:0.058792 84:-0.706619 85:0.976532 86:-0.105377 87:-0.770828 88:0.931381 89:-0.129715 90:-0.856018 
